1.38 -1.10 1.50 -1.77 1.03 -3.82 1.33 0.11 -0.29 -0.74
-0.46 0.35 2.61 -0.86 -0.48 -0.45 -0.43 0.53 -0.83 -0.88
-0.16 0.70 0.95 1.71 0.74 -0.74 1.32 -0.40 -0.37 -1.11
0.29 -1.10 0.63 -0.02 0.00 0.51 -0.26 -0.88 -1.20 -1.99
-1.31 -0.89 -1.04 0.91 1.43 1.11 -1.88 -0.30 -0.17 0.86
-0.31 0.97 -1.38 0.62 1.21 -1.11 0.30 -1.02 -0.58 -2.67
1.28 -0.66 -0.41 1.62 -0.24 1.04 -1.17 -0.59 -1.28 0.05
0.68 0.63 0.94 1.71 -1.56 -2.44 -0.97 0.37 -1.90 1.64
0.71 1.61 -2.75 -0.41 1.05 2.07 -1.69 0.33 0.29 -0.60
0.02 -0.01 -2.01 0.29 -0.15 -2.01 1.37 0.49 1.54 -1.04
0.25 0.55 -0.82 -2.19 -0.73 0.58 1.31 -1.02 -1.03 2.37
0.63 -0.10 -2.84 0.76 0.63 -0.18 1.06 -0.08 -2.08 -1.61
-1.18 1.56 -1.93 -2.35 -1.46 2.16 1.77 -0.00 -2.44 -0.06
-0.60 -2.71 0.95 0.30 -0.49 0.58 0.25 -0.83 0.79 -0.11
-1.54 0.74 -0.55 -1.04 -0.72 0.88 -0.67 0.61 0.15 1.32
-0.97 0.81 -1.95 -2.16 1.36 0.78 0.89 0.74 1.54 -0.34
0.54 -0.27 3.27 0.95 -0.07 0.72 -0.58 0.18 -0.49 -2.30
0.21 0.39 -2.39 0.68 -0.86 -0.58 1.16 -0.86 -1.62 0.85
-0.51 0.52 2.42 -2.57 -1.30 -1.46 0.99 -0.52 -2.38 -0.19
-0.19 -1.06 -0.51 0.39 -1.56 1.20 -0.98 -0.21 0.94 0.22
0.47 -0.79 0.24 0.09 -0.38 0.59 -1.41 -0.93 1.03 1.53
0.31 0.15 -0.20 -0.32 0.65 -1.72 2.02 -0.46 0.35 -0.28
-1.07 0.64 1.46 -2.44 -0.51 -0.82 -0.03 -0.07 1.48 0.16
0.62 -0.68 -1.01 1.38 -0.04 0.65 0.81 -0.13 1.27 -0.52
-1.19 -2.06 -0.70 -0.24 -2.57 -1.25 -1.53 -0.92 0.92 1.11
0.38 -0.14 -0.35 1.40 0.42 -0.21 -0.05 0.36 -1.07 -0.57
0.55 -0.24 -0.19 1.21 -0.42 0.08 0.42 -0.11 1.31 1.40
0.89 -0.54 -1.65 -0.21 1.02 -0.37 1.37 0.78 0.29 -1.32
-1.39 0.40 0.55 1.74 2.01 0.36 0.49 0.32 -1.21 -2.57
-2.17 -0.38 0.84 -0.14 -0.29 0.80 -0.26 0.59 0.11 0.67
0.99 1.30 -0.17 -0.14 1.34 -0.86 -1.12 -0.13 0.24 0.71
0.88 1.52 -0.00 -1.39 -0.99 0.40 -0.09 0.42 -0.99 0.88
0.86 1.17 0.34 -0.04 -0.58 -1.16 1.21 -0.02 -2.64 -0.18
-0.72 0.42 -0.79 0.15 -1.50 0.90 0.20 -0.80 -1.14 -1.23
0.07 -1.28 -0.03 0.44 -0.24 -0.26 0.96 -0.33 1.12 -0.53
0.66 -0.06 -1.29 -1.45 1.17 1.81 0.22 -0.41 -1.29 -1.17
0.68 0.11 0.13 -0.20 0.72 -0.55 -0.56 -0.00 -2.45 1.30
-0.37 1.43 1.41 0.03 0.17 0.11 0.13 -0.28 -2.21 -0.58
0.24 0.98 -1.65 -1.05 -0.26 -1.13 0.50 -0.93 0.85 0.46
-1.98 -0.66 1.17 -1.38 -0.16 -0.44 -1.45 -0.11 -0.46 1.67
-1.65 0.52 -1.26 1.30 -1.72 -2.01 0.92 -0.05 -1.57 -1.76
0.50 1.19 -1.84 -0.51 -1.28 0.71 -0.26 0.78 1.02 -2.03
0.10 0.03 -0.45 2.28 0.05 -2.82 -0.45 -0.01 -1.11 0.70
-0.55 -0.01 0.15 -0.48 1.71 -0.57 -1.50 0.47 1.41 -0.45
-0.33 0.07 1.58 -2.40 -0.26 -0.24 -0.65 0.20 3.15 -0.97
-1.48 0.20 0.73 -0.33 -0.69 0.09 -0.44 -0.51 -0.36 0.38
0.60 -2.07 1.43 -2.38 -1.78 0.71 -0.10 0.02 1.77 0.64
-0.06 0.85 0.04 3.28 -0.81 -0.54 -1.12 0.42 -0.91 -0.64
0.67 0.36 1.08 -1.93 -1.82 -1.67 0.17 0.23 0.94 -0.46
-0.30 0.85 0.06 0.27 0.68 -1.27 0.22 -0.24 1.26 0.67
-1.13 -0.92 0.06 -0.89 1.89 0.58 0.87 -0.37 -2.25 2.35
0.96 -0.51 2.48 -2.40 1.82 -1.17 -0.79 -0.65 -1.43 -1.67
-0.92 0.73 0.49 -0.66 1.23 -0.27 -0.43 -1.01 -0.57 -2.13
1.41 0.04 1.20 -0.70 -1.27 0.51 -1.20 0.80 0.35 1.79
-0.44 0.27 0.07 -3.78 -0.18 -1.44 0.48 0.02 -0.73 -0.96
-3.05 -1.97 -1.42 -1.20 -1.21 3.36 -1.50 -0.06 -1.03 0.47
-2.12 -0.09 2.08 0.29 0.34 -0.18 0.90 0.33 -1.94 -1.60
1.73 -0.89 -1.01 1.36 -0.29 0.28 -0.34 0.05 0.27 0.46
0.25 0.24 -1.21 -0.87 -0.38 0.61 -0.35 -0.71 -0.41 -0.53
-0.41 0.00 -1.75 -0.20 0.14 1.75 -1.81 -0.70 -1.18 1.68
-0.20 -1.60 -2.14 1.11 1.55 -0.63 -1.30 -0.28 0.95 -0.46
-1.21 -0.50 -0.65 0.43 -1.22 -1.21 -0.11 0.45 0.42 1.80
0.90 0.78 1.68 -0.04 -2.62 1.47 0.48 0.90 -2.67 -1.53
0.98 -0.80 -2.28 -0.43 1.82 0.16 0.31 -0.08 -1.85 1.69
-0.77 -0.74 0.64 0.20 0.68 -0.07 0.38 -0.52 0.02 -1.15
0.06 0.22 -2.18 -1.25 2.48 1.74 0.64 -0.73 -0.07 -3.11
-1.24 -1.27 -0.39 1.55 1.67 -1.36 -2.04 0.53 -0.14 -1.56
0.36 0.19 0.95 -1.49 -0.11 0.96 -0.42 -0.86 -1.42 0.25
-1.69 0.39 0.07 -1.56 -1.08 -0.74 1.12 0.55 0.94 -0.35
-1.30 0.18 0.54 -3.24 1.16 -1.49 -1.10 0.64 -1.68 0.28
-1.27 -0.27 -0.33 1.82 -0.07 -2.21 0.06 0.14 1.35 0.78
-1.22 0.96 -0.29 0.98 -1.49 0.91 0.13 -0.02 -0.23 0.24
-0.53 0.58 -0.41 0.42 0.35 -2.91 0.45 -0.48 -1.87 0.96
-0.40 -1.53 -1.26 1.41 -1.74 0.62 1.50 0.43 0.92 -1.26
0.89 -0.40 1.67 -1.74 -0.02 1.40 0.09 0.64 -0.28 -0.38
-1.32 -0.89 -0.55 -0.47 -0.52 0.70 0.33 -0.58 -0.53 1.52
-0.56 0.35 0.86 -1.36 -0.12 1.65 -0.08 -0.32 -1.68 0.44
-0.32 0.89 -0.37 0.24 1.02 1.26 -0.01 -0.63 -1.24 -1.13
1.43 -0.38 -1.83 0.26 -0.10 0.29 1.08 -0.85 -2.81 1.82
1.84 0.26 -1.70 -0.70 0.79 1.35 1.25 0.58 -1.61 0.98
-1.48 -2.33 0.12 -0.46 0.06 0.69 -1.80 0.82 0.04 0.27
-0.84 -0.37 -1.19 0.10 1.04 2.35 -2.66 0.18 -1.67 -1.60
-0.19 -0.69 1.51 -1.61 -0.12 -0.14 -2.27 -0.66 -1.24 -0.60
-0.60 -0.92 0.84 -0.88 -1.10 0.87 -1.41 0.72 1.55 0.93
0.68 1.50 -2.09 -1.88 -1.40 1.96 1.18 -0.09 -0.19 -0.93
0.71 -1.85 0.63 -0.28 -1.30 -1.10 -0.70 0.72 -0.41 1.02
-0.76 -1.16 0.04 -1.28 0.91 0.03 -0.71 0.87 0.82 -0.58
-0.28 -1.82 0.93 -0.39 -2.03 1.64 0.35 -0.86 1.32 1.00
0.48 1.36 0.07 0.01 0.27 0.96 -0.59 0.06 -1.04 -0.55
0.48 0.36 -1.03 -2.42 0.99 0.61 -0.43 -0.58 1.37 -1.11
-1.44 1.65 -0.24 -1.10 0.23 -2.56 1.23 -0.78 0.24 -0.69
1.44 -1.45 -0.62 -2.32 0.50 0.77 -0.99 0.21 0.72 0.76
0.82 0.93 -1.07 -0.67 0.18 1.12 1.94 0.61 0.61 0.74
0.81 -0.98 1.05 -0.87 -1.56 -1.48 1.35 -0.75 -1.01 -0.08
1.74 -1.00 1.65 1.05 0.41 -0.38 -1.57 -0.98 -0.24 -1.17
0.50 1.35 0.72 1.17 0.00 -0.79 0.51 -0.40 -0.89 -1.10
-0.75 2.12 -1.31 -1.38 -0.73 -0.78 -0.06 -0.15 0.40 2.25
-0.48 1.40 -0.84 0.59 1.26 1.64 -0.25 0.49 -1.97 -0.87
-1.45 -0.07 -0.43 0.19 0.31 1.04 -0.65 -0.88 1.31 0.73
-0.16 -0.04 -0.03 0.55 0.18 0.86 0.64 0.89 -0.62 0.41
0.89 1.95 -1.20 -2.40 0.56 4.01 -0.02 0.69 -4.27 -2.50
-0.34 -0.23 -0.71 -1.29 -2.07 1.47 0.36 -0.26 -0.12 1.45
-0.71 -0.98 -0.93 -0.73 -0.29 0.02 0.18 0.56 0.86 -0.19
-1.32 0.03 0.62 0.26 -1.16 0.15 -0.95 -0.27 -0.38 1.21
-0.77 -0.46 -0.98 -1.83 0.50 0.36 -0.14 0.51 -0.65 -1.17
-0.74 -0.27 1.88 -1.31 0.33 1.54 -1.50 0.67 -2.03 0.25
-0.36 -0.55 1.73 -1.27 -0.85 0.91 0.51 0.71 1.19 0.52
1.17 -0.24 -0.22 1.01 -0.45 0.90 -1.10 -0.53 -3.10 0.09
0.93 1.14 -0.04 0.23 -2.66 0.20 -0.49 -0.79 -0.42 2.67
-0.49 -0.55 0.08 -1.87 -1.32 -0.38 -0.91 0.71 2.37 0.85
0.45 -0.33 1.54 -0.58 -1.32 -1.74 1.60 -0.59 0.23 -1.45
0.15 0.92 2.90 -2.38 0.11 0.37 -0.06 0.48 -3.88 -1.06
1.07 1.02 0.49 -0.99 -0.76 0.62 -0.36 -0.03 -1.56 -0.02
-2.52 0.66 0.82 -0.18 -3.16 0.32 2.59 -0.18 0.35 -0.85
0.96 -0.58 2.40 0.63 -1.17 -0.71 -1.14 0.55 -2.46 1.19
-2.05 0.07 1.16 0.82 0.21 -0.61 -0.69 -0.38 -2.11 -0.85
1.18 -0.87 -0.85 0.73 0.21 -2.62 0.11 0.74 -0.30 -1.11
0.48 1.68 -0.86 0.70 -1.09 0.33 -0.06 -1.14 -1.18 -0.25
-0.98 1.16 0.62 3.39 0.98 -2.79 0.84 0.56 -1.17 -0.75
-0.70 -0.24 0.18 -0.11 -1.78 1.30 -0.90 0.04 -0.78 1.40
-0.20 0.82 -1.17 1.06 -0.62 -0.12 -0.59 0.51 -1.42 1.65
0.40 -1.56 1.98 -0.85 -1.23 0.85 -1.07 0.51 0.41 -1.88
-0.95 -1.23 1.60 1.23 -1.10 -0.22 0.24 0.30 1.34 -0.67
-0.86 0.74 -0.98 0.04 -1.10 0.57 -1.92 -0.97 -0.71 1.10
1.42 -0.05 -0.36 -0.37 -0.92 -0.59 -1.95 0.16 0.65 -0.19
-1.04 1.04 -2.34 -1.63 0.68 0.66 0.66 0.22 0.15 -0.21
0.04 1.67 -2.16 -0.15 -0.04 -1.01 0.11 -0.47 -1.55 0.61
0.37 -0.81 1.45 -1.99 -1.13 1.00 -0.25 -0.50 -0.73 -1.28
-0.51 1.09 -1.39 -0.51 0.70 2.01 -1.06 0.09 0.91 -1.48
-0.94 -0.20 -1.56 -2.43 0.46 1.36 1.23 0.38 0.67 -1.36
-1.51 0.15 0.24 2.15 2.14 -2.20 1.04 0.54 -0.18 0.56
-0.65 -0.72 0.04 -1.53 0.68 -0.06 0.23 -0.13 2.84 0.54
-0.71 -0.20 -0.99 0.35 0.65 2.00 -0.06 0.03 1.27 -1.59
0.18 -0.51 0.12 -1.68 0.61 0.89 -1.47 0.62 -0.57 1.18
-0.21 -0.56 0.87 -2.30 -2.43 -0.27 0.64 -0.91 -0.73 0.48
1.01 -0.38 0.44 -0.63 0.90 -1.26 0.60 0.28 -0.36 1.17
0.82 -0.79 1.63 -0.63 -0.65 -0.31 -0.65 -0.35 0.44 0.38
0.47 0.41 0.17 0.51 0.34 2.09 -0.13 -0.26 -2.22 -0.90
-1.24 -1.41 -0.94 0.73 -3.17 0.95 0.91 0.66 2.63 -3.05
-0.33 0.66 0.29 -1.00 0.02 -0.34 0.45 -0.78 -1.94 1.17
-2.32 1.64 0.62 -1.76 -0.18 0.65 -2.57 -0.81 -0.69 0.28
-0.56 -0.76 0.18 -0.82 0.73 -1.77 0.49 -0.57 0.97 -1.20
-0.88 0.94 -2.10 1.27 0.28 1.49 1.67 -0.42 -0.54 0.59
-0.76 -1.35 0.44 0.00 -1.66 2.53 -0.17 0.10 -1.13 -0.36
0.22 -0.69 1.52 -1.11 1.88 1.05 -2.31 -1.05 -0.76 -4.09
0.86 -1.11 0.27 -0.25 -0.51 2.57 -1.90 -0.10 3.07 -0.79
0.06 0.06 -0.23 0.21 1.31 0.65 -1.76 -0.09 -1.97 -2.57
-0.25 -0.52 0.61 -1.08 0.92 1.19 -0.26 -0.97 0.24 -0.47
1.14 -0.55 -0.86 -1.05 -1.01 -3.38 -1.06 -0.20 0.13 -0.21
0.29 0.74 -0.29 -0.97 -1.28 0.18 -0.79 -1.16 -0.51 -0.19
-0.43 -0.70 1.16 -0.93 -1.92 -0.13 0.31 -0.46 -1.42 -4.50
1.07 -0.33 -0.43 0.08 -1.35 -0.83 0.85 0.51 0.25 1.47
-1.55 -0.59 -0.68 -1.31 -0.28 1.68 1.82 0.22 0.03 -0.26
1.64 0.84 0.61 -1.25 0.67 -1.89 0.80 -0.76 0.31 0.31
1.83 0.29 -0.53 -0.93 1.62 -1.15 -0.03 0.60 2.68 0.65
-1.11 -0.74 1.28 0.84 -0.55 1.13 -0.97 -0.69 -0.05 1.10
-0.51 -0.96 0.95 -0.03 0.15 -0.11 -0.31 -0.97 -0.02 -0.56
-1.61 -1.17 -0.47 -1.50 0.37 -1.89 0.10 -1.12 0.78 0.03
0.29 1.44 -0.24 -0.87 0.23 -0.22 -0.92 -0.71 -0.83 0.45
0.04 0.11 -0.08 0.06 -2.81 -0.11 0.79 -0.95 -0.23 0.05
-0.58 -1.10 0.08 2.66 0.31 -1.20 -0.49 -0.49 -0.91 -1.68
-1.45 -0.76 0.72 1.27 1.07 -0.54 0.13 -0.90 -1.77 0.13
-1.14 -0.17 -1.66 -0.89 1.73 -1.84 0.59 0.04 0.36 -0.73
-0.68 -1.23 0.06 -0.91 1.71 -1.28 -0.08 -0.25 -0.13 -2.71
-1.25 0.42 -0.30 2.56 -0.57 2.39 0.07 0.14 -1.45 -0.54
-0.41 -0.72 2.67 0.03 -0.81 0.94 -2.60 -0.61 -3.19 0.07
0.15 1.14 -0.17 0.73 -0.36 -0.30 -0.51 0.10 -1.91 1.71
-1.17 -0.16 -1.73 -2.28 0.86 0.16 0.49 -0.70 -1.62 -0.26
-1.51 0.10 1.22 1.22 1.06 -1.23 -0.73 0.06 -1.12 0.43
2.15 -0.55 -0.11 -0.53 -1.11 -1.41 -0.60 -0.49 1.49 1.25
-2.21 0.33 -0.77 -1.14 -0.63 -0.45 2.00 -0.28 0.44 -2.10
-0.27 -1.34 0.43 -1.11 -0.37 -0.82 0.48 0.16 -0.59 1.04
-0.26 -0.92 0.19 -0.73 -4.00 2.60 0.37 0.92 -1.68 1.02
0.51 0.22 -1.57 1.43 -0.38 1.08 -1.61 -0.99 -1.65 1.40
-0.85 1.99 -0.58 1.23 -0.56 -0.36 -0.12 -0.69 -2.20 1.07
-1.09 0.02 -1.99 -0.73 2.96 0.57 0.72 -0.03 0.82 2.11
0.24 -0.64 -1.34 -0.27 0.15 -0.48 -0.06 -0.54 0.60 0.60
-0.68 0.58 -0.20 -1.14 1.41 0.53 1.22 -0.55 -1.92 -3.06
0.08 -0.42 -0.68 2.31 -0.93 1.67 -0.91 0.72 -3.32 0.62
-0.53 0.19 -0.23 0.13 0.79 -1.05 -1.44 -0.13 -0.72 0.08
-1.06 -0.49 -0.46 0.84 -0.34 0.55 0.16 -0.07 1.12 0.71
-0.08 1.41 -0.90 0.15 -2.79 0.06 -0.96 -0.81 2.10 1.65
-1.05 -1.55 -3.03 -1.70 1.21 1.68 0.73 -0.50 -1.60 1.58
-2.38 0.43 1.24 0.77 -1.44 1.15 0.59 0.19 -0.95 -2.02
-0.85 1.73 0.99 -1.95 0.68 -1.09 -0.32 -0.61 -1.76 -1.07
0.19 1.00 -0.56 0.37 2.75 -1.07 -0.70 -0.44 -0.43 -1.86
1.65 1.42 1.06 2.15 -1.87 -2.32 -0.69 -0.16 -1.39 -2.00
-0.26 0.17 0.29 3.02 -1.58 0.43 -0.77 -0.67 -2.13 -1.11
-0.95 0.86 -0.41 0.64 -0.50 0.45 0.71 -1.02 -0.50 0.63
-1.53 -2.49 -0.89 1.31 0.68 -2.19 0.31 -0.80 1.62 -3.56
-1.00 0.18 -0.13 -0.71 0.06 0.47 0.18 0.85 -0.77 -1.53
2.06 0.22 -0.05 -0.06 -0.55 0.01 -1.32 0.59 0.98 -1.51
-0.09 -0.34 0.79 -0.00 -1.20 -0.35 -1.35 -0.09 0.43 -0.73
0.24 0.55 -1.64 0.84 -0.58 -0.80 0.23 0.70 -0.75 -1.84
0.19 -0.88 0.07 -0.39 -1.11 -0.91 1.03 -0.14 1.08 1.68
0.40 1.31 -1.14 -1.27 -1.32 1.18 0.71 0.56 -0.59 0.32
0.32 0.24 -0.80 -0.62 -1.58 0.59 -1.17 0.44 -1.21 0.22
0.35 -0.57 0.06 0.19 -1.21 0.23 -1.07 0.71 -0.12 0.98
0.48 0.71 -1.71 2.00 0.27 1.89 0.46 0.62 -2.71 -1.16
0.29 -0.84 1.18 0.23 -0.02 -1.03 0.04 -0.80 -0.23 -1.76
-0.63 1.19 0.20 0.31 -0.34 -0.10 -0.47 -0.10 -0.42 -1.86
1.33 -0.04 -0.76 0.20 -0.21 -2.20 2.15 0.18 -1.59 -0.25
0.31 0.19 -0.56 1.42 -0.72 -0.03 -1.34 0.74 1.42 0.63
-1.73 0.11 -0.60 0.43 0.67 1.18 -1.74 -0.72 -2.53 2.20
-1.43 -0.63 0.72 0.37 -0.53 0.25 -0.58 -0.00 0.06 -0.32
-0.27 0.51 0.08 0.62 2.43 0.27 0.55 -0.88 -1.05 -1.56
-0.79 -0.09 -0.16 2.62 -0.33 -2.65 -0.67 -0.00 0.04 -1.39
-0.88 -0.23 0.05 -0.49 -1.18 -0.77 1.72 -0.47 1.91 0.46
0.35 -0.25 0.19 -2.94 2.90 0.01 0.12 0.12 -0.37 -0.91
-1.31 0.44 -1.67 0.17 0.80 -0.33 -1.20 0.82 0.17 0.35
1.36 1.61 -1.78 -0.69 0.80 -0.44 1.26 -0.06 -0.96 0.54
-0.64 0.21 0.60 -0.32 0.46 -1.27 0.75 -0.72 -1.45 0.89
0.44 -2.51 0.10 0.21 -1.62 0.06 0.44 0.00 0.62 1.43
-0.96 -0.51 0.46 0.28 1.98 -0.49 -0.65 0.22 -0.44 -1.03
-1.98 0.96 -0.35 1.01 -0.99 1.33 -0.23 0.65 -0.14 -2.05
-0.36 -1.21 -0.97 -0.44 0.35 0.74 -0.66 0.28 0.44 0.09
-0.05 -0.12 -0.46 0.48 -0.27 -0.26 1.06 -0.59 0.11 0.24
-0.01 0.00 -0.31 0.67 -1.08 -0.91 -1.06 -0.91 -1.51 1.64
0.02 0.01 -1.42 -1.24 0.56 -0.07 -0.04 -0.05 -0.72 -1.17
-0.49 1.17 -0.29 -0.37 -0.40 -0.45 -1.22 -0.07 -1.28 1.67
-1.58 -1.35 0.86 0.22 1.50 -1.15 0.04 0.52 0.80 -1.35
0.26 -0.46 0.33 -0.69 1.18 0.35 0.34 -0.68 1.53 -1.55
-0.28 0.87 -0.69 -0.53 -1.17 -0.45 1.55 -0.81 -0.84 -1.19
0.86 -0.46 1.52 -2.03 -0.14 -1.99 -2.58 0.44 -0.24 0.59
-0.52 0.57 2.37 0.90 -1.00 1.58 -1.17 -0.08 -1.00 -0.29
-1.55 0.19 -0.72 -1.44 2.20 -0.35 -1.75 0.02 -0.40 -2.91
0.01 -0.86 0.34 -0.79 0.79 -1.34 1.22 -0.96 0.84 -0.28
-1.31 -0.98 -1.00 0.84 -0.20 -0.65 -0.34 -1.05 1.22 1.33
-1.15 0.16 -0.91 1.40 -1.72 0.75 -1.71 0.26 -0.96 1.01
0.38 0.58 1.50 -1.12 -0.43 -0.73 -1.44 0.45 -0.88 0.40
-0.26 -0.89 -3.05 -0.25 -0.69 -1.84 0.56 -0.78 -3.32 0.58
0.37 0.29 -0.51 -0.05 -1.64 -0.32 -1.21 0.64 0.71 -0.14
-0.06 -0.31 -0.22 1.00 -0.73 -0.97 -0.79 -0.17 -0.65 0.28
1.47 0.52 1.68 0.03 -0.23 -3.04 -2.41 -0.06 -0.01 0.66
-0.52 0.60 0.01 -0.73 -1.81 -0.53 0.85 0.32 -0.01 0.59
-0.08 0.28 -2.60 1.70 -0.73 -2.40 0.55 0.49 -1.45 0.76
0.80 -1.86 0.26 0.11 0.50 0.46 0.07 -0.19 -2.06 -0.43
-0.17 -1.04 0.55 -2.14 -0.58 -0.99 -0.03 -0.22 0.14 -0.38
-0.66 -1.20 1.08 -0.72 0.55 -0.43 -0.62 0.45 0.91 0.86
0.32 -0.60 -2.66 0.76 1.16 0.97 0.19 0.50 -1.93 0.28
-1.41 -0.09 2.26 -0.53 0.42 -0.52 0.01 0.65 -1.54 -0.26
-0.21 -0.48 -2.70 1.01 -0.20 -0.51 0.58 0.02 1.66 -0.59
0.07 -0.17 0.62 -0.36 0.37 -0.00 -0.59 -1.07 0.30 -2.13
-0.41 -0.38 -1.11 1.13 -0.48 -0.25 -1.06 0.78 0.16 1.02
-1.77 -0.62 0.52 -0.77 -0.94 2.67 0.21 0.17 -0.46 0.85
0.04 -1.70 -0.07 1.76 0.07 0.46 0.22 0.58 -0.49 -0.10
1.50 -0.17 -1.47 -0.91 -0.20 -0.52 -1.62 -1.01 -0.97 -1.38
-0.20 0.53 -0.02 -0.82 -1.60 0.55 0.40 -1.21 -0.47 -0.09
0.16 -1.52 0.33 -2.78 0.33 0.45 -0.50 -0.33 1.81 -0.54
-1.72 -1.80 1.12 -0.05 0.73 0.84 0.16 -0.74 -2.81 0.83
1.51 -0.28 0.54 -1.78 0.52 -0.65 -1.04 0.07 0.52 0.54
-1.12 0.62 -1.53 0.25 1.92 -1.26 1.24 -0.56 -1.67 -0.61
0.26 -0.44 0.52 -0.61 1.07 -0.17 0.21 0.48 -0.67 -1.50
-0.20 -0.11 1.31 -2.54 3.01 1.01 -1.73 0.74 2.76 -0.49
-0.67 -1.81 2.23 -0.27 -2.16 -2.20 -1.12 -0.35 0.44 1.49
-0.32 -1.42 -1.00 0.83 -2.11 -0.69 1.09 -1.11 -0.05 -1.13
-0.57 0.99 -0.00 0.36 -0.75 -1.56 0.33 -0.27 -0.53 1.67
-0.15 0.10 -0.28 0.09 -0.06 0.44 -2.32 -0.55 -1.58 -0.05
-0.64 0.19 0.89 0.13 0.79 1.12 -0.33 0.90 0.05 -0.08
-0.30 -0.62 -0.75 -0.26 -1.40 1.29 -0.88 -0.87 0.66 -1.11
-0.06 1.08 -1.32 1.31 2.08 -1.81 -0.06 0.09 -2.37 -1.12
-0.96 0.65 0.36 -0.28 -0.02 -0.34 -0.59 -0.74 -0.14 -0.71
-1.33 -0.36 -0.48 -0.04 -1.86 0.52 1.20 -0.47 1.77 0.07
-1.17 -0.28 -1.56 -1.78 -0.16 -0.93 -1.78 0.02 -2.01 0.77
1.63 -1.28 -1.85 1.00 0.33 -0.64 -0.40 -0.15 0.52 -1.25
0.17 -0.95 -0.24 -1.10 0.44 1.21 -0.61 -0.51 0.78 0.25
-0.12 -0.69 0.22 0.09 -0.43 0.79 -1.18 -0.09 1.17 1.42
0.14 1.24 -0.44 2.78 0.34 -0.06 0.52 -1.00 -1.70 0.56
0.01 0.30 0.59 -1.96 -0.35 0.06 -1.48 -0.31 -1.01 1.93
0.22 1.04 -0.72 0.97 0.19 1.48 -0.58 -0.08 -0.94 -0.55
1.04 1.25 -2.19 -1.06 -1.06 0.10 -0.39 0.60 0.01 0.91
1.41 -0.61 -0.71 0.46 0.48 -1.13 1.35 0.67 0.89 0.50
-0.10 -0.24 -0.68 -1.83 -0.37 1.73 1.67 -0.85 -0.60 -0.09
-1.64 -0.64 1.98 -0.58 -0.97 0.99 -0.13 -0.89 -0.89 0.83
1.06 0.86 1.11 0.31 -1.01 1.25 0.49 0.50 -1.60 -0.37
1.07 -1.40 0.61 -1.26 -1.01 -0.20 0.25 0.22 -1.34 0.49
-1.37 -1.13 0.02 2.40 -0.73 -0.27 0.43 -0.76 -0.81 -0.32
-0.02 1.83 1.17 -0.78 0.29 0.17 -1.38 -0.38 -1.32 0.04
-0.32 0.66 0.01 -1.51 -0.41 0.41 0.54 0.45 0.56 -1.74
1.38 1.03 -0.04 2.42 -0.21 -3.20 1.50 -0.26 0.53 0.99
-1.47 0.15 -0.83 -0.33 0.75 1.34 -1.81 0.25 -0.25 2.12
-1.25 0.78 0.06 0.57 0.06 1.32 -0.17 0.72 -1.48 -0.56
-0.23 1.01 0.46 0.89 0.79 -0.15 -1.01 0.49 0.95 -1.22
-0.88 0.71 -0.55 -0.79 0.75 1.50 -1.94 0.36 0.24 -0.04
-0.63 -0.11 1.86 2.46 -0.84 -1.97 -2.07 0.52 -0.17 -0.96
-1.13 1.47 -0.67 0.13 0.56 -0.75 -0.51 0.07 0.86 -0.13
-0.75 0.54 -1.40 -0.30 2.00 0.23 0.21 -0.46 0.41 -4.17
0.28 -0.09 -0.17 -0.86 0.78 0.23 -0.71 -0.02 -0.34 -0.95
0.06 1.65 -0.13 -1.22 0.91 1.55 0.06 -0.52 -0.71 -0.46
0.86 -2.13 -0.34 -1.49 -1.30 0.96 -0.00 0.08 0.05 1.60
-0.89 1.23 0.48 -0.78 -0.76 0.28 -2.23 -0.99 2.74 0.48
0.43 0.19 -0.59 0.56 0.68 -1.41 1.11 -0.28 -1.13 -2.11
0.05 0.08 0.70 -0.03 -0.42 -1.08 0.13 0.13 0.49 0.44
1.08 -0.16 0.78 -0.80 0.09 -2.13 0.32 -0.83 -0.07 -0.59
0.51 -0.33 -0.90 0.92 -1.25 0.38 -2.28 -0.24 -1.30 1.81
-0.65 -0.67 -0.59 -0.15 0.36 -0.70 -1.48 -0.33 0.02 -0.05
1.04 0.39 -0.83 -0.70 0.65 -2.25 -0.25 -0.76 -0.69 1.27
0.92 0.73 0.35 1.53 3.01 -1.94 -2.26 -0.97 -0.27 -1.53
-2.12 -1.04 0.44 0.27 -0.98 0.12 0.58 -0.31 0.67 -0.05
0.20 -0.06 0.78 1.08 -3.75 -0.02 2.75 -0.06 -0.77 -0.76

